/*!
 * The following copyright notice may not be removed under any circumstances.
 * 
 * Copyright:
 * Copyright 1992-2003 Adobe Systems Incorporated. All Rights Reserved. U.S.
 * Patent Des. 454,582.
 * 
 * Trademark:
 * Myriad is either a registered trademark or a trademark of Adobe Systems
 * Incorporated in the United States and/or other countries.
 * 
 * Description:
 * Myriad is an Adobe Originals typeface designed by Robert Slimbach and Carol
 * Twombly in 1992. Myriad is a sans serif design that works well as a text face as
 * well as providing flexibility for filling display needs. Myriad Web has been
 * optimized for onscreen use.
 * 
 * Manufacturer:
 * Adobe Systems Incorporated
 * 
 * Designer:
 * Robert Slimbach and Carol Twombly
 * 
 * Vendor URL:
 * http://www.adobe.com/type
 * 
 * License information:
 * http://www.adobe.com/type/legal.html
 */
Cufon.registerFont({"w":1062,"face":{"font-family":"Myriad Web Pro","font-weight":400,"font-stretch":"normal","units-per-em":"2000","panose-1":"2 11 5 3 3 4 3 2 2 4","ascent":"1520","descent":"-480","x-height":"22","bbox":"-94 -1500 1728 500","underline-thickness":"100","underline-position":"-150","unicode-range":"U+0020-U+007E"},"glyphs":{" ":{"w":436},"!":{"d":"306,-392r-142,0r-30,-956r202,0xm236,-238v73,0,124,56,124,130v0,72,-51,130,-124,130v-71,0,-124,-59,-124,-130v0,-73,52,-130,124,-130","w":472},"\"":{"d":"98,-1386r186,0r-36,486r-114,0xm406,-1386r186,0r-36,486r-114,0","w":690},"#":{"d":"196,0r52,-390r-170,0r0,-124r188,0r38,-282r-176,0r0,-124r194,0r52,-380r124,0r-52,380r214,0r50,-380r124,0r-50,380r168,0r0,124r-186,0r-36,282r174,0r0,124r-194,0r-52,390r-126,0r52,-390r-212,0r-50,390r-126,0xm392,-514r212,0r36,-282r-212,0","w":1028},"$":{"d":"910,-378v0,187,-145,319,-328,344r0,206r-132,0r0,-200v-128,-3,-234,-33,-318,-90r52,-144v91,60,191,90,300,90v128,0,240,-72,240,-190v0,-138,-100,-178,-230,-230v-126,-50,-216,-100,-267,-155v-51,-55,-77,-120,-77,-197v0,-182,139,-302,314,-326r0,-200r132,0r0,194v100,3,189,27,268,72r-50,140v-85,-48,-173,-72,-266,-72v-120,0,-212,62,-212,168v0,47,18,86,54,118v36,32,101,68,198,106v117,46,199,97,248,154v49,57,74,127,74,212"},"%":{"d":"374,-524v-196,0,-314,-174,-314,-390v0,-225,121,-408,326,-408v206,0,312,165,312,386v0,233,-119,412,-324,412xm382,-634v130,0,171,-138,170,-292v0,-153,-40,-286,-170,-286v-122,0,-172,146,-172,290v0,145,47,288,172,288xm486,22r-116,0r770,-1344r116,0xm1246,14v-198,0,-314,-173,-314,-392v0,-223,122,-406,326,-406v206,0,312,165,312,386v0,233,-119,412,-324,412xm1254,-96v130,0,171,-138,170,-292v-1,-148,-38,-286,-170,-286v-122,0,-172,145,-172,290v0,147,48,288,172,288","w":1630},"&":{"d":"574,-1370v173,0,310,119,310,290v0,75,-24,142,-74,199v-50,57,-126,112,-228,165r330,366v62,-89,107,-219,134,-390r170,0v-39,226,-106,393,-202,500r230,240r-222,0r-128,-130v-114,101,-249,152,-404,152v-237,0,-429,-156,-428,-378v0,-167,91,-300,272,-400v-77,-96,-116,-189,-116,-278v0,-185,154,-336,356,-336xm564,-1244v-104,0,-172,87,-172,192v0,77,35,156,104,238v82,-45,138,-88,174,-126v99,-103,47,-304,-106,-304xm242,-386v0,154,123,268,280,268v109,0,203,-39,280,-118r-384,-418v-117,73,-176,162,-176,268","w":1246},"'":{"d":"98,-1386r186,0r-36,486r-114,0","w":382},"(":{"d":"394,240v-353,-435,-351,-1191,0,-1630r144,0v-168,227,-252,500,-252,820v0,303,84,573,252,810r-144,0","w":580},")":{"d":"42,240v336,-445,336,-1187,0,-1630r144,0v352,435,352,1191,0,1630r-144,0","w":580},"*":{"d":"62,-946r0,-140r298,36r-190,-248r128,-72r126,282r124,-282r124,70r-194,254r308,-40r0,140r-308,-32r196,242r-130,74r-126,-284r-130,286r-118,-76r194,-248","w":846},"+":{"d":"530,0r0,-472r-448,0r0,-126r448,0r0,-468r134,0r0,468r448,0r0,126r-448,0r0,472r-134,0","w":1192},",":{"d":"162,232r-132,14v55,-153,95,-315,122,-486r206,-20v-58,203,-123,367,-196,492","w":424},".":{"d":"230,-240v74,0,124,56,124,132v0,73,-54,130,-126,130v-71,0,-124,-59,-124,-130v0,-74,53,-132,126,-132","w":424},"\/":{"d":"140,80r-140,0r562,-1450r144,0","w":700},"0":{"d":"870,-1149v157,214,150,784,-4,993v-86,116,-196,178,-344,178v-136,0,-241,-62,-326,-178v-161,-220,-159,-770,6,-986v90,-117,199,-180,340,-180v141,0,246,61,328,173xm530,-1178v-306,2,-319,656,-198,914v89,188,304,182,396,4v85,-164,91,-613,3,-780v-48,-90,-112,-138,-201,-138"},"1":{"d":"484,0r0,-1128v-82,36,-153,81,-232,120r-36,-140r290,-152r158,0r0,1300r-180,0"},"2":{"d":"508,-1322v241,0,410,156,410,382v0,97,-32,198,-94,301v-62,103,-217,265,-466,485r592,0r0,154r-858,0r0,-114v301,-273,483,-454,546,-545v63,-91,94,-176,94,-257v0,-161,-96,-252,-262,-252v-96,0,-191,38,-286,114r-60,-130v110,-92,238,-138,384,-138"},"3":{"d":"930,-368v0,244,-220,390,-490,390v-139,0,-257,-31,-352,-92r48,-142v97,56,197,84,302,84v173,0,296,-93,298,-246v2,-169,-159,-257,-338,-254r-108,0r0,-140r108,0v142,2,294,-76,292,-212v-1,-125,-96,-192,-232,-192v-93,0,-183,29,-272,88r-50,-134v102,-69,221,-104,358,-104v219,0,386,115,386,312v0,144,-82,247,-246,310v163,28,296,154,296,332"},"4":{"d":"830,0r-178,0r0,-352r-620,0r0,-122r590,-826r208,0r0,804r184,0r0,144r-184,0r0,352xm652,-496r0,-634v-51,97,-85,157,-103,182r-329,448"},"5":{"d":"736,-404v-4,-202,-158,-288,-382,-286v-67,0,-130,5,-190,14r86,-624r644,0r0,156r-512,0r-48,318v325,-48,592,104,592,404v0,259,-228,444,-498,444v-133,0,-246,-27,-340,-82r46,-142v91,49,188,74,292,74v166,0,313,-113,310,-276"},"6":{"d":"544,22v-299,0,-476,-241,-476,-556v0,-342,180,-623,424,-715v124,-47,245,-71,366,-71r2,152v-334,-6,-561,175,-594,458v79,-100,186,-150,322,-150v239,0,406,179,406,422v0,251,-194,460,-450,460xm532,-720v-127,0,-278,114,-278,236v0,197,101,364,292,364v159,0,258,-139,258,-306v0,-173,-104,-294,-272,-294"},"7":{"d":"118,-1300r848,0r0,124r-580,1176r-194,0r578,-1146r-652,0r0,-154"},"8":{"d":"528,22v-242,0,-452,-136,-452,-354v0,-157,87,-271,260,-344v-140,-67,-210,-166,-210,-296v0,-209,196,-350,416,-350v218,0,394,126,394,322v0,135,-72,238,-216,308v148,54,263,156,266,332v4,231,-214,382,-458,382xm538,-1188v-131,0,-230,82,-230,204v0,115,84,193,252,234v133,-43,200,-119,200,-230v0,-122,-86,-208,-222,-208xm798,-340v0,-181,-154,-241,-296,-276v-117,35,-232,112,-232,267v0,135,118,235,262,235v147,0,266,-88,266,-226"},"9":{"d":"544,-1322v289,5,446,243,446,552v0,233,-63,423,-190,570v-127,147,-328,220,-602,220r0,-152v337,20,556,-168,596,-466v-77,93,-183,140,-316,140v-228,0,-396,-174,-396,-400v0,-251,203,-468,462,-464xm524,-598v126,0,275,-88,276,-198v2,-213,-79,-381,-272,-384v-157,-2,-260,146,-260,312v0,154,103,270,256,270"},":":{"d":"230,-938v74,0,124,56,124,132v0,71,-53,130,-124,130v-71,0,-124,-59,-124,-130v0,-73,52,-132,124,-132xm228,-240v74,0,124,56,124,132v0,71,-53,130,-124,130v-71,0,-124,-59,-124,-130v0,-73,52,-132,124,-132","w":424},";":{"d":"244,-938v74,0,124,56,124,132v0,71,-53,130,-124,130v-71,0,-124,-59,-124,-130v0,-73,52,-132,124,-132xm162,232r-130,14v54,-151,95,-313,122,-486r204,-20v-59,206,-125,370,-196,492","w":424},"<":{"d":"1060,0r-930,-474r0,-116r930,-474r0,144r-778,390r778,386r0,144","w":1192},"=":{"d":"80,-674r0,-126r1032,0r0,126r-1032,0xm80,-276r0,-126r1032,0r0,126r-1032,0","w":1192},">":{"d":"130,0r0,-144r784,-390r-784,-386r0,-144r932,472r0,120","w":1192},"?":{"d":"402,-1370v254,0,419,207,314,442v-21,49,-70,114,-144,198v-85,96,-126,176,-116,342r-166,0v-3,-46,-5,-74,-5,-84v0,-109,46,-210,129,-310v85,-103,142,-141,142,-266v0,-111,-76,-170,-192,-170v-82,0,-152,21,-210,64r-52,-132v85,-56,185,-84,300,-84xm372,-238v73,0,124,56,124,130v0,73,-54,130,-126,130v-71,0,-124,-59,-124,-130v0,-74,53,-130,126,-130","w":840},"@":{"d":"208,-622v0,317,219,546,526,546v119,0,221,-24,308,-72r32,92v-102,52,-223,78,-362,78v-348,0,-624,-276,-624,-632v0,-417,322,-760,744,-760v344,0,602,248,602,588v0,248,-143,464,-362,464v-101,0,-155,-69,-160,-176v-72,117,-169,176,-290,176v-131,1,-222,-116,-222,-256v0,-253,220,-470,478,-470v84,0,159,15,224,44v-45,245,-70,378,-73,398v-3,20,-5,43,-5,68v0,76,26,114,79,114v132,0,213,-185,213,-352v0,-300,-198,-502,-500,-502v-349,0,-608,289,-608,652xm538,-584v0,89,49,155,136,154v120,0,225,-160,246,-272r40,-214v-228,-76,-422,119,-422,332","w":1514},"A":{"d":"878,-420r-492,0r-142,420r-194,0r472,-1348r228,0r476,1348r-200,0xm424,-564r416,0v-121,-339,-191,-547,-212,-626v-29,111,-97,320,-204,626","w":1272},"B":{"d":"756,-722v156,37,281,156,282,338v0,114,-47,207,-138,284v-136,116,-465,129,-746,96r0,-1326v93,-20,204,-30,334,-30v172,0,298,32,378,94v80,62,120,143,120,244v0,151,-106,253,-230,300xm504,-780v162,3,294,-76,294,-222v0,-144,-99,-216,-296,-216v-71,0,-125,4,-162,12r0,426r164,0xm842,-388v0,-178,-157,-256,-352,-254r-150,0r0,502v31,5,82,8,152,8v199,1,350,-73,350,-256","w":1122},"C":{"d":"270,-666v0,323,205,532,534,532v118,0,218,-19,300,-58r36,146v-91,45,-216,68,-374,68v-410,0,-692,-271,-692,-684v0,-415,309,-708,732,-708v138,0,251,21,338,62r-44,150v-86,-39,-181,-58,-286,-58v-333,0,-544,215,-544,550","w":1210},"D":{"d":"1314,-708v0,473,-311,720,-824,720v-126,0,-238,-5,-336,-16r0,-1326v125,-20,256,-30,392,-30v263,0,458,59,582,178v124,119,186,277,186,474xm1118,-700v0,-341,-213,-517,-564,-514v-85,0,-156,6,-214,18r0,1052v27,5,89,8,184,8v372,3,595,-199,594,-564","w":1388},"E":{"d":"882,-780r0,154r-542,0r0,472r606,0r0,154r-792,0r0,-1348r760,0r0,154r-574,0r0,414r542,0","w":1020},"F":{"d":"154,0r0,-1348r758,0r0,154r-572,0r0,436r528,0r0,154r-528,0r0,604r-186,0","w":1012},"G":{"d":"270,-674v0,323,213,536,536,536v111,0,192,-13,242,-38r0,-388r-280,0r0,-148r462,0r0,648v-144,52,-289,78,-436,78v-438,0,-718,-267,-720,-678v-2,-417,324,-698,758,-698v139,0,258,21,356,64r-46,150v-88,-40,-193,-60,-316,-60v-330,0,-556,208,-556,534","w":1346},"H":{"d":"154,-1348r186,0r0,560r674,0r0,-560r186,0r0,1348r-186,0r0,-628r-674,0r0,628r-186,0r0,-1348","w":1354},"I":{"d":"154,-1348r186,0r0,1348r-186,0r0,-1348","w":494},"J":{"d":"192,-134v203,-3,252,-123,252,-340r0,-874r186,0r0,890v0,320,-141,480,-422,480v-78,0,-145,-11,-200,-34r28,-150v45,19,97,28,156,28","w":770},"K":{"d":"154,0r0,-1348r192,0r0,648v35,-50,212,-266,532,-648r232,0r-504,572r544,776r-220,0r-456,-658r-134,150r0,508r-186,0","w":1126},"L":{"d":"154,0r0,-1348r186,0r0,1192r596,0r0,156r-782,0","w":980},"M":{"d":"1362,0r-60,-1174v-46,151,-98,306,-157,465r-259,699r-142,0v-167,-479,-265,-764,-294,-854v-29,-90,-59,-194,-90,-310v-9,251,-19,454,-28,608r-36,566r-176,0r94,-1348r242,0v168,465,264,735,289,812v25,77,53,172,85,286v105,-399,257,-731,390,-1098r240,0r84,1348r-182,0","w":1662},"N":{"d":"328,0r-174,0r0,-1348r208,0r442,674v101,153,185,298,252,436v-28,-253,-18,-778,-20,-1110r174,0r0,1348r-190,0r-438,-676v-110,-171,-199,-321,-266,-452v17,275,11,790,12,1128","w":1366},"O":{"d":"726,-1370v380,0,638,296,638,682v0,410,-262,710,-654,710v-377,0,-636,-297,-636,-682v0,-399,267,-710,652,-710xm718,-1220v-286,0,-450,256,-450,554v0,282,175,538,446,538v284,0,452,-253,452,-552v0,-283,-171,-540,-448,-540","w":1438},"P":{"d":"1018,-962v5,291,-233,441,-532,438v-67,0,-116,-5,-146,-14r0,538r-186,0r0,-1332v103,-19,221,-28,354,-28v304,0,505,130,510,398xm832,-954v0,-178,-133,-262,-322,-260v-65,0,-121,5,-170,14r0,512v35,11,85,16,150,16v201,2,342,-94,342,-282","w":1102},"Q":{"d":"1364,-688v0,321,-155,559,-398,642r0,8v149,37,284,65,406,86r-54,152v-182,-46,-362,-99,-540,-158v-35,-12,-64,-19,-86,-20v-361,-10,-618,-294,-618,-680v0,-405,264,-712,656,-712v378,0,634,298,634,682xm724,-1220v-288,0,-454,256,-454,556v0,283,174,536,446,536v284,0,452,-253,452,-552v0,-282,-170,-540,-444,-540","w":1438},"R":{"d":"1018,-990v0,177,-114,295,-258,342v97,38,163,129,198,274v54,221,91,345,108,374r-192,0v-19,-31,-47,-138,-90,-320v-39,-168,-92,-254,-274,-260r-170,0r0,580r-186,0r0,-1330v105,-20,223,-30,352,-30v179,0,309,33,390,100v81,67,122,157,122,270xm832,-970v0,-174,-126,-249,-312,-248v-78,0,-138,5,-180,16r0,482r186,0v172,3,306,-89,306,-250","w":1114},"S":{"d":"934,-370v0,251,-211,392,-488,392v-127,0,-283,-39,-360,-90r48,-154v101,60,209,90,326,90v160,0,286,-77,286,-224v0,-164,-111,-206,-262,-260v-127,-46,-222,-97,-281,-159v-59,-62,-89,-137,-89,-225v-1,-227,209,-370,452,-370v128,0,232,23,312,68r-50,150v-77,-44,-167,-66,-268,-66v-143,0,-258,73,-258,198v0,56,19,102,58,139v39,37,111,74,218,113v128,47,219,102,274,164v55,62,82,140,82,234","w":1024},"T":{"d":"424,0r0,-1192r-426,0r0,-156r1040,0r0,156r-428,0r0,1192r-186,0","w":1034},"U":{"d":"658,22v-344,0,-504,-227,-504,-590r0,-780r186,0r0,786v-2,254,97,434,326,434v237,0,338,-176,338,-434r0,-786r186,0r0,774v3,368,-179,596,-532,596","w":1344},"V":{"d":"670,0r-208,0r-456,-1348r202,0r254,785v49,153,87,279,114,377v91,-343,272,-809,394,-1162r198,0","w":1158},"W":{"d":"576,0r-198,0r-350,-1348r198,0v157,654,245,1035,262,1142r4,0v59,-305,208,-810,294,-1142r198,0r164,682v48,203,80,355,96,456r4,0v65,-343,200,-789,290,-1138r190,0r-394,1348r-196,0r-170,-700v-49,-204,-79,-350,-90,-438r-4,0v-56,312,-211,807,-298,1138","w":1742},"X":{"d":"1140,0r-218,0v-218,-362,-331,-549,-340,-560r-314,560r-216,0r428,-682r-412,-666r218,0v191,331,294,511,310,542v3,-13,109,-193,316,-542r218,0r-426,658","w":1190},"Y":{"d":"654,0r-186,0r0,-570r-442,-778r214,0v190,363,301,578,332,646v21,-52,134,-267,338,-646r212,0r-468,774r0,574","w":1126},"Z":{"d":"62,0r0,-106r772,-1088r-706,0r0,-154r950,0r0,110r-768,1084r780,0r0,154r-1028,0","w":1156},"[":{"d":"540,224r-376,0r0,-1594r376,0r0,114r-232,0r0,1366r232,0r0,114","w":580},"\\":{"d":"708,80r-144,0r-558,-1450r144,0","w":706},"]":{"d":"40,-1370r376,0r0,1594r-376,0r0,-114r232,0r0,-1366r-232,0r0,-114","w":580},"^":{"d":"1074,-376r-146,0r-334,-772r-332,772r-144,0r412,-924r132,0","w":1192},"_":{"d":"0,150r1000,0r0,100r-1000,0r0,-100","w":1000},"`":{"d":"38,-1378r202,0r178,290r-132,0","w":600},"a":{"d":"476,-990v255,-1,382,147,382,404v0,188,-10,432,16,586r-170,0r-22,-124v-73,97,-175,146,-306,146v-171,0,-304,-119,-304,-278v0,-117,51,-207,153,-269v102,-62,251,-93,447,-93v5,-153,-74,-237,-224,-236v-99,0,-187,25,-264,74r-42,-122v93,-59,205,-88,334,-88xm426,-116v128,0,251,-98,250,-214r0,-160v-156,0,-264,19,-325,56v-61,37,-91,89,-91,154v-2,101,67,164,166,164","w":998},"b":{"d":"1106,-498v0,290,-186,519,-452,520v-151,0,-265,-61,-342,-182r-8,160r-162,0v5,-61,8,-146,8,-254r0,-1170r190,0r0,614v71,-120,185,-180,342,-180v256,0,424,223,424,492xm620,-844v-154,0,-284,140,-284,290r0,158v-3,144,130,270,280,270v195,0,302,-158,302,-364v0,-194,-111,-354,-298,-354","w":1182},"c":{"d":"266,-484v0,209,142,358,344,356v77,0,153,-16,226,-48r30,140v-82,39,-179,58,-290,58v-292,0,-500,-204,-500,-494v0,-305,227,-518,538,-518v97,0,183,18,256,54r-40,142v-61,-32,-133,-48,-214,-48v-208,0,-350,152,-350,358","w":930},"d":{"d":"526,-990v140,0,252,62,308,148r0,-582r186,0r0,1170v0,108,3,193,8,254r-166,0r-14,-172v-57,114,-180,193,-342,194v-252,2,-430,-225,-430,-490v0,-285,184,-522,450,-522xm560,-128v148,0,282,-127,274,-288r0,-154v5,-156,-121,-274,-270,-274v-189,0,-300,165,-300,364v0,193,106,352,296,352","w":1170},"e":{"d":"550,-990v289,0,446,245,408,544r-702,0v1,203,138,324,338,324v107,0,201,-17,282,-50r32,130v-95,43,-208,64,-338,64v-296,0,-494,-196,-494,-490v0,-287,186,-522,474,-522xm784,-580v1,-161,-88,-279,-248,-278v-161,1,-260,126,-278,278r526,0","w":1038},"f":{"d":"166,-968v-13,-281,103,-476,358,-478v57,0,108,9,154,28r-22,144v-33,-15,-72,-22,-116,-22v-142,0,-200,131,-190,328r238,0r0,142r-236,0r0,826r-186,0r0,-826r-136,0r0,-142r136,0","w":606},"g":{"d":"76,-476v0,-285,192,-514,452,-514v147,0,253,56,318,168r8,-146r164,0v-15,226,-8,570,-8,824v0,390,-161,564,-510,564v-140,0,-253,-28,-338,-84r46,-142v86,53,185,80,296,80v211,0,324,-122,322,-338r-4,-106v-70,111,-177,166,-320,166v-246,0,-426,-219,-426,-472xm558,-146v145,0,266,-123,266,-276r0,-158v2,-144,-114,-266,-264,-266v-183,0,-296,163,-296,360v0,189,110,340,294,340","w":1160},"h":{"d":"590,-836v-129,-1,-254,116,-254,256r0,580r-186,0r0,-1424r186,0r0,610r4,0v54,-97,178,-176,316,-176v220,0,350,174,350,422r0,568r-186,0r0,-548v1,-169,-70,-287,-230,-288","w":1148},"i":{"d":"336,0r-186,0r0,-968r186,0r0,968xm244,-1378v66,0,118,51,118,116v0,67,-51,118,-120,118v-67,0,-118,-52,-118,-118v0,-65,52,-116,120,-116","w":484},"j":{"d":"-74,424r-20,-146v145,-5,219,-61,248,-174v14,-53,20,-142,20,-266r0,-806r186,0r0,876v0,202,-42,339,-124,410v-82,71,-185,106,-310,106xm268,-1378v67,0,118,50,118,116v0,68,-50,118,-120,118v-67,0,-118,-52,-118,-118v0,-65,53,-116,120,-116","w":506},"k":{"d":"336,-1424r4,896v113,-149,256,-296,378,-440r226,0r-386,396r442,572r-230,0r-340,-462r-94,102r0,360r-186,0r0,-1424r186,0","w":974},"l":{"d":"150,0r0,-1424r186,0r0,1424r-186,0","w":484},"m":{"d":"568,-838v-124,-2,-236,131,-236,260r0,578r-182,0r0,-702v0,-107,-3,-196,-8,-266r162,0r14,158v72,-120,177,-180,316,-180v142,0,239,87,284,196v79,-131,190,-196,332,-196v216,0,330,181,330,428r0,562r-182,0r0,-540v1,-171,-60,-295,-214,-298v-122,-2,-228,112,-228,244r0,594r-182,0r0,-572v2,-150,-68,-264,-206,-266","w":1722},"n":{"d":"590,-836v-132,-2,-254,121,-254,258r0,578r-186,0r0,-702v0,-107,-3,-196,-8,-266r164,0r16,164v54,-103,180,-186,330,-186v222,0,354,173,354,422r0,568r-186,0r0,-548v1,-169,-70,-286,-230,-288","w":1148},"o":{"d":"578,-990v285,0,489,211,486,496v-4,314,-197,509,-500,516v-281,7,-488,-212,-488,-498v0,-302,211,-514,502,-514xm570,-852v-194,0,-304,171,-304,370v0,194,118,366,298,366v184,0,306,-173,306,-372v0,-190,-112,-364,-300,-364","w":1140},"p":{"d":"650,22v-140,0,-255,-62,-310,-154r-4,0r0,528r-186,0r0,-1046v0,-130,-3,-236,-8,-318r166,0r10,168r4,0v81,-127,201,-190,360,-190v251,0,424,224,424,490v0,295,-183,522,-456,522xm622,-842v-163,0,-286,136,-286,286r0,156v-4,151,128,276,278,276v197,0,304,-159,304,-368v0,-190,-112,-350,-296,-350","w":1182},"q":{"d":"76,-468v5,-303,168,-522,452,-522v145,0,250,57,314,170r6,-148r180,0v-5,72,-8,160,-8,264r0,1100r-186,0r0,-550v-70,117,-181,176,-334,176v-249,0,-428,-226,-424,-490xm558,-126v151,0,277,-136,276,-274r0,-172v5,-153,-122,-272,-270,-272v-191,0,-300,162,-300,364v0,196,106,354,294,354","w":1168},"r":{"d":"646,-810v-192,-36,-310,105,-310,298r0,512r-186,0r0,-660v0,-125,-3,-228,-8,-308r164,0r12,194v46,-129,158,-235,328,-212r0,176","w":680},"s":{"d":"740,-272v0,190,-166,294,-374,294v-106,0,-201,-23,-284,-68r44,-142v79,48,160,72,244,72v107,0,188,-45,188,-140v0,-111,-75,-134,-182,-172v-177,-63,-266,-152,-266,-274v1,-174,156,-288,346,-288v97,0,180,20,248,60r-46,134v-67,-39,-137,-58,-208,-58v-90,0,-159,48,-160,130v0,34,12,63,36,86v24,23,76,48,152,76v156,58,262,115,262,290","w":822},"t":{"d":"370,-322v1,121,28,190,136,190v43,0,79,-4,106,-12r8,140v-46,17,-101,26,-166,26v-177,0,-266,-111,-266,-332r0,-516r-152,0r0,-142r152,0r0,-180r182,-54r0,234r258,0r0,142r-258,0r0,504","w":684},"u":{"d":"552,-132v133,0,254,-116,254,-250r0,-586r186,0r0,700v0,110,3,199,8,268r-164,0r-16,-164v-75,124,-185,186,-332,186v-232,0,-344,-173,-344,-430r0,-560r186,0r0,528v0,205,74,308,222,308","w":1142},"v":{"d":"26,-968r202,0r206,570v23,64,48,136,74,216v18,-61,46,-143,83,-247r193,-539r198,0r-394,968r-182,0","w":1000},"w":{"d":"36,-968r190,0v127,469,195,735,204,796r4,0v7,-52,90,-317,248,-796r158,0v143,449,223,714,240,796r4,0v54,-280,144,-533,216,-796r184,0r-320,968r-172,0v-110,-339,-172,-532,-186,-578v-14,-46,-30,-111,-48,-196r-4,0v-59,267,-166,523,-248,774r-172,0","w":1514},"x":{"d":"30,-968r210,0v157,228,239,348,246,360v32,-55,111,-175,238,-360r204,0r-340,466r350,502r-212,0v-131,-191,-217,-318,-258,-382v-15,31,-97,158,-246,382r-208,0r356,-496","w":964},"y":{"d":"18,-968r204,0r220,577v19,48,41,110,66,185v26,-90,46,-155,60,-195r198,-567r200,0r-274,692v-87,220,-159,371,-212,456v-86,137,-204,226,-356,262r-44,-156v101,-31,180,-85,236,-162v56,-77,84,-128,84,-154v0,-11,-4,-27,-12,-46","w":978},"z":{"d":"38,0r0,-108r444,-554r134,-158r-540,0r0,-148r770,0r-2,114r-438,548r-132,158r580,0r0,148r-816,0","w":888},"{":{"d":"188,-52v0,-61,32,-261,32,-322v0,-100,-55,-150,-164,-150r0,-106v107,-1,164,-38,164,-148v0,-73,-32,-255,-32,-328v0,-195,136,-275,342,-264r0,116v-134,-7,-198,41,-198,172v0,66,30,222,30,288v0,117,-49,190,-148,218v99,24,148,97,148,218v0,66,-30,221,-30,292v0,131,67,185,198,176r0,114v-221,11,-342,-76,-342,-276","w":580},"|":{"d":"176,-1500r140,0r0,2000r-140,0r0,-2000","w":492},"}":{"d":"360,-778v0,109,56,147,162,148r2,106v-109,0,-164,50,-164,150v0,61,32,261,32,322v0,200,-121,287,-342,276r0,-114v131,9,198,-45,198,-176v0,-72,-30,-226,-30,-292v0,-121,49,-195,148,-222v-99,-25,-148,-97,-148,-214v0,-63,30,-219,30,-288v0,-131,-63,-180,-198,-172r0,-116v208,-11,342,71,342,264v0,61,-32,265,-32,328","w":580},"~":{"d":"1102,-720v3,198,-62,312,-236,312v-123,0,-178,-38,-292,-90v-126,-58,-205,-88,-238,-88v-76,0,-116,57,-120,170r-126,0v-13,-236,148,-358,362,-291v76,23,354,170,416,157v70,0,106,-57,108,-170r126,0","w":1192},"-":{"d":"60,-610r502,0r0,136r-502,0r0,-136","w":622},"\u00a0":{"w":436}}});
